<?xml version="1.0"?>
<opencv_storage>
<cascade>
  <stageType>BOOST</stageType>
  <featureType>HAAR</featureType>
  <height>24</height>
  <width>24</width>
  <stageParams>
    <boostType>GAB</boostType>
    <minHitRate>9.9500000476837158e-01</minHitRate>
    <maxFalseAlarm>5.0000000000000000e-01</maxFalseAlarm>
    <weightTrimRate>9.4999998807907104e-01</weightTrimRate>
    <maxDepth>1</maxDepth>
    <maxWeakCount>100</maxWeakCount></stageParams>
  <featureParams>
    <maxCatCount>0</maxCatCount>
    <featSize>1</featSize>
    <mode>BASIC</mode></featureParams>
  <stageNum>4</stageNum>
  <stages>
    <!-- stage 0 -->
    <_>
      <maxWeakCount>1</maxWeakCount>
      <stageThreshold>7.2413790225982666e-01</stageThreshold>
      <weakClassifiers>
        <_>
          <internalNodes>
            0 -1 0 1.4968147873878479e-01</internalNodes>
          <leafValues>
            -1. 7.2413790225982666e-01</leafValues></_></weakClassifiers></_>
    <!-- stage 1 -->
    <_>
      <maxWeakCount>2</maxWeakCount>
      <stageThreshold>-1.8450541794300079e-01</stageThreshold>
      <weakClassifiers>
        <_>
          <internalNodes>
            0 -1 7 1.0223842225968838e-02</internalNodes>
          <leafValues>
            -9.8606967926025391e-01 8.0000001192092896e-01</leafValues></_>
        <_>
          <internalNodes>
            0 -1 6 2.3051097989082336e-01</internalNodes>
          <leafValues>
            -9.8332637548446655e-01 8.0156421661376953e-01</leafValues></_></weakClassifiers></_>
    <!-- stage 2 -->
    <_>
      <maxWeakCount>2</maxWeakCount>
      <stageThreshold>-5.5563324689865112e-01</stageThreshold>
      <weakClassifiers>
        <_>
          <internalNodes>
            0 -1 3 -2.0569401979446411e-01</internalNodes>
          <leafValues>
            4.3750000000000000e-01 -9.9597179889678955e-01</leafValues></_>
        <_>
          <internalNodes>
            0 -1 1 6.5503954887390137e-02</internalNodes>
          <leafValues>
            -9.9313324689865112e-01 5.7165265083312988e-01</leafValues></_></weakClassifiers></_>
    <!-- stage 3 -->
    <_>
      <maxWeakCount>3</maxWeakCount>
      <stageThreshold>-1.4108490943908691e+00</stageThreshold>
      <weakClassifiers>
        <_>
          <internalNodes>
            0 -1 5 -5.4784552194178104e-03</internalNodes>
          <leafValues>
            8.3333331346511841e-01 -9.7235929965972900e-01</leafValues></_>
        <_>
          <internalNodes>
            0 -1 4 -2.5999476201832294e-03</internalNodes>
          <leafValues>
            4.0916469693183899e-01 -9.7392064332962036e-01</leafValues></_>
        <_>
          <internalNodes>
            0 -1 2 2.1911010146141052e-02</internalNodes>
          <leafValues>
            -8.4765452146530151e-01 8.3762055635452271e-01</leafValues></_></weakClassifiers></_></stages>
  <features>
    <_>
      <rects>
        <_>
          1 2 21 4 -1.</_>
        <_>
          8 2 7 4 3.</_></rects>
      <tilted>0</tilted></_>
    <_>
      <rects>
        <_>
          1 10 12 5 -1.</_>
        <_>
          5 10 4 5 3.</_></rects>
      <tilted>0</tilted></_>
    <_>
      <rects>
        <_>
          5 1 11 3 -1.</_>
        <_>
          5 2 11 1 3.</_></rects>
      <tilted>0</tilted></_>
    <_>
      <rects>
        <_>
          5 6 14 17 -1.</_>
        <_>
          12 6 7 17 2.</_></rects>
      <tilted>0</tilted></_>
    <_>
      <rects>
        <_>
          5 9 4 2 -1.</_>
        <_>
          5 9 2 1 2.</_>
        <_>
          7 10 2 1 2.</_></rects>
      <tilted>0</tilted></_>
    <_>
      <rects>
        <_>
          5 10 2 4 -1.</_>
        <_>
          5 10 1 2 2.</_>
        <_>
          6 12 1 2 2.</_></rects>
      <tilted>0</tilted></_>
    <_>
      <rects>
        <_>
          5 12 16 12 -1.</_>
        <_>
          5 16 16 4 3.</_></rects>
      <tilted>0</tilted></_>
    <_>
      <rects>
        <_>
          14 0 3 3 -1.</_>
        <_>
          14 1 3 1 3.</_></rects>
      <tilted>0</tilted></_></features></cascade>
</opencv_storage>
